<?xml version="1.0"?>
<opencv_storage>
<cascade>
  <stageType>BOOST</stageType>
  <featureType>HAAR</featureType>
  <height>36</height>
  <width>36</width>
  <stageParams>
    <boostType>GAB</boostType>
    <minHitRate>9.9500000476837158e-01</minHitRate>
    <maxFalseAlarm>5.0000000000000000e-01</maxFalseAlarm>
    <weightTrimRate>9.4999998807907104e-01</weightTrimRate>
    <maxDepth>1</maxDepth>
    <maxWeakCount>100</maxWeakCount></stageParams>
  <featureParams>
    <maxCatCount>0</maxCatCount>
    <featSize>1</featSize>
    <mode>BASIC</mode></featureParams>
  <stageNum>12</stageNum>
  <stages>
    <!-- stage 0 -->
    <_>
      <maxWeakCount>4</maxWeakCount>
      <stageThreshold>-1.6522629261016846e+00</stageThreshold>
      <weakClassifiers>
        <_>
          <internalNodes>
            0 -1 59 -1.1917416751384735e-01</internalNodes>
          <leafValues>
            4.4578313827514648e-01 -9.1381001472473145e-01</leafValues></_>
        <_>
          <internalNodes>
            0 -1 24 6.0744605958461761e-02</internalNodes>
          <leafValues>
            -7.9649788141250610e-01 5.5336642265319824e-01</leafValues></_>
        <_>
          <internalNodes>
            0 -1 10 -3.2212090492248535e-01</internalNodes>
          <leafValues>
            9.1932511329650879e-01 -4.7137260437011719e-01</leafValues></_>
        <_>
          <internalNodes>
            0 -1 49 -3.1929254531860352e-02</internalNodes>
          <leafValues>
            5.2941751480102539e-01 -6.0712784528732300e-01</leafValues></_></weakClassifiers></_>
    <!-- stage 1 -->
    <_>
      <maxWeakCount>6</maxWeakCount>
      <stageThreshold>-2.1257019042968750e+00</stageThreshold>
      <weakClassifiers>
        <_>
          <internalNodes>
            0 -1 6 1.2052124738693237e-01</internalNodes>
          <leafValues>
            -9.1339373588562012e-01 9.9099099636077881e-02</leafValues></_>
        <_>
          <internalNodes>
            0 -1 74 -4.2497746646404266e-02</internalNodes>
          <leafValues>
            5.1920115947723389e-01 -6.4190542697906494e-01</leafValues></_>
        <_>
          <internalNodes>
            0 -1 38 -1.1298138648271561e-02</internalNodes>
          <leafValues>
            3.8594430685043335e-01 -5.8112525939941406e-01</leafValues></_>
        <_>
          <internalNodes>
            0 -1 75 -5.1916053052991629e-04</internalNodes>
          <leafValues>
            5.3738462924957275e-01 -3.5015359520912170e-01</leafValues></_>
        <_>
          <internalNodes>
            0 -1 17 4.1758172214031219e-02</internalNodes>
          <leafValues>
            -3.2076576352119446e-01 5.7726579904556274e-01</leafValues></_>
        <_>
          <internalNodes>
            0 -1 7 -3.3317917585372925e-01</internalNodes>
          <leafValues>
            9.0626132488250732e-01 -2.1638961136341095e-01</leafValues></_></weakClassifiers></_>
    <!-- stage 2 -->
    <_>
      <maxWeakCount>6</maxWeakCount>
      <stageThreshold>-1.7276976108551025e+00</stageThreshold>
      <weakClassifiers>
        <_>
          <internalNodes>
            0 -1 5 1.2721019983291626e-01</internalNodes>
          <leafValues>
            -9.1754758358001709e-01 -1.7721518874168396e-01</leafValues></_>
        <_>
          <internalNodes>
            0 -1 32 -7.2424218058586121e-02</internalNodes>
          <leafValues>
            2.6223897933959961e-01 -6.8642526865005493e-01</leafValues></_>
        <_>
          <internalNodes>
            0 -1 20 1.8915794498752803e-04</internalNodes>
          <leafValues>
            -4.5112118124961853e-01 4.5449441671371460e-01</leafValues></_>
        <_>
          <internalNodes>
            0 -1 13 -1.4672414399683475e-03</internalNodes>
          <leafValues>
            -9.0425992012023926e-01 1.8690776824951172e-01</leafValues></_>
        <_>
          <internalNodes>
            0 -1 16 3.4159190952777863e-02</internalNodes>
          <leafValues>
            -3.8481524586677551e-01 4.5757344365119934e-01</leafValues></_>
        <_>
          <internalNodes>
            0 -1 66 9.0500488877296448e-02</internalNodes>
          <leafValues>
            -2.1502847969532013e-01 8.5262691974639893e-01</leafValues></_></weakClassifiers></_>
    <!-- stage 3 -->
    <_>
      <maxWeakCount>6</maxWeakCount>
      <stageThreshold>-2.0486745834350586e+00</stageThreshold>
      <weakClassifiers>
        <_>
          <internalNodes>
            0 -1 65 -7.7683985233306885e-02</internalNodes>
          <leafValues>
            -1.9424460828304291e-01 -9.0051811933517456e-01</leafValues></_>
        <_>
          <internalNodes>
            0 -1 9 5.6010000407695770e-02</internalNodes>
          <leafValues>
            -7.1412473917007446e-01 1.8426211178302765e-01</leafValues></_>
        <_>
          <internalNodes>
            0 -1 62 -5.8585904538631439e-02</internalNodes>
          <leafValues>
            3.1458157300949097e-01 -5.1315474510192871e-01</leafValues></_>
        <_>
          <internalNodes>
            0 -1 26 4.0418259799480438e-02</internalNodes>
          <leafValues>
            -2.1750126779079437e-01 8.4030163288116455e-01</leafValues></_>
        <_>
          <internalNodes>
            0 -1 0 8.8979020714759827e-02</internalNodes>
          <leafValues>
            -4.4009286165237427e-01 4.7839161753654480e-01</leafValues></_>
        <_>
          <internalNodes>
            0 -1 41 -1.4267062942963094e-04</internalNodes>
          <leafValues>
            5.3612357378005981e-01 -3.2108584046363831e-01</leafValues></_></weakClassifiers></_>
    <!-- stage 4 -->
    <_>
      <maxWeakCount>8</maxWeakCount>
      <stageThreshold>-1.6841151714324951e+00</stageThreshold>
      <weakClassifiers>
        <_>
          <internalNodes>
            0 -1 3 4.7527199983596802e-01</internalNodes>
          <leafValues>
            -8.6319845914840698e-01 -1.8135744678684245e-17</leafValues></_>
        <_>
          <internalNodes>
            0 -1 37 2.0710911601781845e-02</internalNodes>
          <leafValues>
            -6.7880886793136597e-01 1.7656801640987396e-01</leafValues></_>
        <_>
          <internalNodes>
            0 -1 77 3.7083777133375406e-03</internalNodes>
          <leafValues>
            -3.1128868460655212e-01 6.0410857200622559e-01</leafValues></_>
        <_>
          <internalNodes>
            0 -1 27 -2.9507102444767952e-02</internalNodes>
          <leafValues>
            -7.1817159652709961e-01 2.2662819921970367e-01</leafValues></_>
        <_>
          <internalNodes>
            0 -1 21 1.9100498408079147e-02</internalNodes>
          <leafValues>
            -4.4414708018302917e-01 3.7507638335227966e-01</leafValues></_>
        <_>
          <internalNodes>
            0 -1 44 2.8373245149850845e-02</internalNodes>
          <leafValues>
            2.2410626709461212e-01 -7.3387330770492554e-01</leafValues></_>
        <_>
          <internalNodes>
            0 -1 47 -1.8389038450550288e-04</internalNodes>
          <leafValues>
            4.7112035751342773e-01 -3.4935274720191956e-01</leafValues></_>
        <_>
          <internalNodes>
            0 -1 64 1.7433540197089314e-03</internalNodes>
          <leafValues>
            -2.7787467837333679e-01 5.3207010030746460e-01</leafValues></_></weakClassifiers></_>
    <!-- stage 5 -->
    <_>
      <maxWeakCount>6</maxWeakCount>
      <stageThreshold>-1.7205475568771362e+00</stageThreshold>
      <weakClassifiers>
        <_>
          <internalNodes>
            0 -1 73 -4.0594801306724548e-02</internalNodes>
          <leafValues>
            -3.7724551558494568e-01 -8.8900744915008545e-01</leafValues></_>
        <_>
          <internalNodes>
            0 -1 8 1.4884786680340767e-02</internalNodes>
          <leafValues>
            -5.9518218040466309e-01 2.5321838259696960e-01</leafValues></_>
        <_>
          <internalNodes>
            0 -1 43 2.2703544527757913e-04</internalNodes>
          <leafValues>
            -3.5408496856689453e-01 4.4772908091545105e-01</leafValues></_>
        <_>
          <internalNodes>
            0 -1 25 -7.5206300243735313e-03</internalNodes>
          <leafValues>
            -8.5063320398330688e-01 1.7512699961662292e-01</leafValues></_>
        <_>
          <internalNodes>
            0 -1 70 5.4619129514321685e-04</internalNodes>
          <leafValues>
            -3.3899453282356262e-01 4.2279484868049622e-01</leafValues></_>
        <_>
          <internalNodes>
            0 -1 19 5.0415890291333199e-04</internalNodes>
          <leafValues>
            -4.8019480705261230e-01 3.4119519591331482e-01</leafValues></_></weakClassifiers></_>
    <!-- stage 6 -->
    <_>
      <maxWeakCount>9</maxWeakCount>
      <stageThreshold>-1.6387226581573486e+00</stageThreshold>
      <weakClassifiers>
        <_>
          <internalNodes>
            0 -1 60 -1.8230997025966644e-01</internalNodes>
          <leafValues>
            1.3043478131294250e-01 -8.5255199670791626e-01</leafValues></_>
        <_>
          <internalNodes>
            0 -1 52 -2.0625961944460869e-02</internalNodes>
          <leafValues>
            2.1328559517860413e-01 -6.3083142042160034e-01</leafValues></_>
        <_>
          <internalNodes>
            0 -1 48 7.8910891897976398e-04</internalNodes>
          <leafValues>
            -2.9872509837150574e-01 5.2884060144424438e-01</leafValues></_>
        <_>
          <internalNodes>
            0 -1 18 5.9601604938507080e-02</internalNodes>
          <leafValues>
            -4.5330694317817688e-01 3.6098471283912659e-01</leafValues></_>
        <_>
          <internalNodes>
            0 -1 14 -7.5235322117805481e-02</internalNodes>
          <leafValues>
            9.3343448638916016e-01 -1.7695005238056183e-01</leafValues></_>
        <_>
          <internalNodes>
            0 -1 67 -2.5138694792985916e-02</internalNodes>
          <leafValues>
            5.8406901359558105e-01 -2.5307577848434448e-01</leafValues></_>
        <_>
          <internalNodes>
            0 -1 46 -1.6239647520706058e-03</internalNodes>
          <leafValues>
            3.6225956678390503e-01 -4.4873401522636414e-01</leafValues></_>
        <_>
          <internalNodes>
            0 -1 42 -1.5448815189301968e-02</internalNodes>
          <leafValues>
            -9.0682595968246460e-01 1.8775212764739990e-01</leafValues></_>
        <_>
          <internalNodes>
            0 -1 30 1.5334543422795832e-04</internalNodes>
          <leafValues>
            -3.2247912883758545e-01 4.7670689225196838e-01</leafValues></_></weakClassifiers></_>
    <!-- stage 7 -->
    <_>
      <maxWeakCount>7</maxWeakCount>
      <stageThreshold>-1.6829128265380859e+00</stageThreshold>
      <weakClassifiers>
        <_>
          <internalNodes>
            0 -1 2 4.5120030641555786e-01</internalNodes>
          <leafValues>
            -8.6536586284637451e-01 -1.1392404884099960e-01</leafValues></_>
        <_>
          <internalNodes>
            0 -1 22 1.9241042435169220e-01</internalNodes>
          <leafValues>
            -6.8471252918243408e-01 4.4154018163681030e-02</leafValues></_>
        <_>
          <internalNodes>
            0 -1 63 -8.9230522513389587e-02</internalNodes>
          <leafValues>
            9.4981497526168823e-01 -2.1910567581653595e-01</leafValues></_>
        <_>
          <internalNodes>
            0 -1 79 -3.2759172609075904e-04</internalNodes>
          <leafValues>
            3.2719519734382629e-01 -5.2110511064529419e-01</leafValues></_>
        <_>
          <internalNodes>
            0 -1 40 1.8301662057638168e-02</internalNodes>
          <leafValues>
            1.4830805361270905e-01 -8.8306802511215210e-01</leafValues></_>
        <_>
          <internalNodes>
            0 -1 12 5.0798870623111725e-02</internalNodes>
          <leafValues>
            -2.7812930941581726e-01 6.6119980812072754e-01</leafValues></_>
        <_>
          <internalNodes>
            0 -1 69 -2.0851113367825747e-04</internalNodes>
          <leafValues>
            -4.3172305822372437e-01 3.2034966349601746e-01</leafValues></_></weakClassifiers></_>
    <!-- stage 8 -->
    <_>
      <maxWeakCount>7</maxWeakCount>
      <stageThreshold>-1.8689907789230347e+00</stageThreshold>
      <weakClassifiers>
        <_>
          <internalNodes>
            0 -1 36 -1.0872908681631088e-01</internalNodes>
          <leafValues>
            5.7894736528396606e-01 -8.3594471216201782e-01</leafValues></_>
        <_>
          <internalNodes>
            0 -1 72 -1.6311010345816612e-02</internalNodes>
          <leafValues>
            1.3993932306766510e-01 -7.3626875877380371e-01</leafValues></_>
        <_>
          <internalNodes>
            0 -1 11 7.2164642624557018e-03</internalNodes>
          <leafValues>
            -5.7376337051391602e-01 2.6795482635498047e-01</leafValues></_>
        <_>
          <internalNodes>
            0 -1 34 4.1105956770479679e-03</internalNodes>
          <leafValues>
            -4.1819396615028381e-01 3.2687807083129883e-01</leafValues></_>
        <_>
          <internalNodes>
            0 -1 15 1.5931237488985062e-02</internalNodes>
          <leafValues>
            -2.6865291595458984e-01 5.6387048959732056e-01</leafValues></_>
        <_>
          <internalNodes>
            0 -1 53 4.7358572483062744e-03</internalNodes>
          <leafValues>
            -4.8620754480361938e-01 3.3793655037879944e-01</leafValues></_>
        <_>
          <internalNodes>
            0 -1 55 -2.5896186707541347e-04</internalNodes>
          <leafValues>
            7.5180613994598389e-01 -2.1582180261611938e-01</leafValues></_></weakClassifiers></_>
    <!-- stage 9 -->
    <_>
      <maxWeakCount>8</maxWeakCount>
      <stageThreshold>-1.8538485765457153e+00</stageThreshold>
      <weakClassifiers>
        <_>
          <internalNodes>
            0 -1 80 1.9715274684131145e-03</internalNodes>
          <leafValues>
            -8.3639705181121826e-01 8.7500000000000000e-01</leafValues></_>
        <_>
          <internalNodes>
            0 -1 76 -6.1146897496655583e-04</internalNodes>
          <leafValues>
            6.4236336946487427e-01 -4.8205298185348511e-01</leafValues></_>
        <_>
          <internalNodes>
            0 -1 33 4.8946067690849304e-02</internalNodes>
          <leafValues>
            2.0261275768280029e-01 -7.1525669097900391e-01</leafValues></_>
        <_>
          <internalNodes>
            0 -1 4 4.7618508338928223e-02</internalNodes>
          <leafValues>
            -5.4623603820800781e-01 3.6275139451026917e-01</leafValues></_>
        <_>
          <internalNodes>
            0 -1 61 -2.3455079644918442e-02</internalNodes>
          <leafValues>
            -8.2740849256515503e-01 2.0031344890594482e-01</leafValues></_>
        <_>
          <internalNodes>
            0 -1 35 1.2303436960792169e-05</internalNodes>
          <leafValues>
            4.1253632307052612e-01 -4.1713434457778931e-01</leafValues></_>
        <_>
          <internalNodes>
            0 -1 71 -1.3371803797781467e-02</internalNodes>
          <leafValues>
            3.4650462865829468e-01 -4.8824942111968994e-01</leafValues></_>
        <_>
          <internalNodes>
            0 -1 28 -1.5966799110174179e-02</internalNodes>
          <leafValues>
            6.8747591972351074e-01 -3.1257691979408264e-01</leafValues></_></weakClassifiers></_>
    <!-- stage 10 -->
    <_>
      <maxWeakCount>9</maxWeakCount>
      <stageThreshold>-1.7525464296340942e+00</stageThreshold>
      <weakClassifiers>
        <_>
          <internalNodes>
            0 -1 1 4.5796042680740356e-01</internalNodes>
          <leafValues>
            -8.4162062406539917e-01 1.</leafValues></_>
        <_>
          <internalNodes>
            0 -1 68 -1.6089691780507565e-04</internalNodes>
          <leafValues>
            2.3407763242721558e-01 -5.8096909523010254e-01</leafValues></_>
        <_>
          <internalNodes>
            0 -1 39 7.5643521267920732e-04</internalNodes>
          <leafValues>
            -4.6746703982353210e-01 3.4575095772743225e-01</leafValues></_>
        <_>
          <internalNodes>
            0 -1 23 -1.3220623135566711e-02</internalNodes>
          <leafValues>
            -7.2255539894104004e-01 2.2774240374565125e-01</leafValues></_>
        <_>
          <internalNodes>
            0 -1 57 3.2444711541756988e-04</internalNodes>
          <leafValues>
            -3.4546494483947754e-01 4.7013047337532043e-01</leafValues></_>
        <_>
          <internalNodes>
            0 -1 54 -6.3940915279090405e-03</internalNodes>
          <leafValues>
            -8.1265670061111450e-01 2.4470192193984985e-01</leafValues></_>
        <_>
          <internalNodes>
            0 -1 31 -3.7307286402210593e-04</internalNodes>
          <leafValues>
            4.2082589864730835e-01 -4.3689036369323730e-01</leafValues></_>
        <_>
          <internalNodes>
            0 -1 58 -4.0861152112483978e-02</internalNodes>
          <leafValues>
            5.1561856269836426e-01 -3.3568912744522095e-01</leafValues></_>
        <_>
          <internalNodes>
            0 -1 29 -8.3880042657256126e-03</internalNodes>
          <leafValues>
            -9.1810774803161621e-01 2.1220432221889496e-01</leafValues></_></weakClassifiers></_>
    <!-- stage 11 -->
    <_>
      <maxWeakCount>5</maxWeakCount>
      <stageThreshold>-2.0109663009643555e+00</stageThreshold>
      <weakClassifiers>
        <_>
          <internalNodes>
            0 -1 51 -1.7005693912506104e-01</internalNodes>
          <leafValues>
            1. -8.5873603820800781e-01</leafValues></_>
        <_>
          <internalNodes>
            0 -1 56 -3.3531107008457184e-02</internalNodes>
          <leafValues>
            6.8610143661499023e-01 -5.6150722503662109e-01</leafValues></_>
        <_>
          <internalNodes>
            0 -1 50 -1.1438454966992140e-03</internalNodes>
          <leafValues>
            3.8941270112991333e-01 -5.7286596298217773e-01</leafValues></_>
        <_>
          <internalNodes>
            0 -1 45 -3.1726830638945103e-03</internalNodes>
          <leafValues>
            5.6816470623016357e-01 -4.1199854016304016e-01</leafValues></_>
        <_>
          <internalNodes>
            0 -1 78 -3.3937193802557886e-04</internalNodes>
          <leafValues>
            -6.4585638046264648e-01 3.9414161443710327e-01</leafValues></_></weakClassifiers></_></stages>
  <features>
    <_>
      <rects>
        <_>
          0 0 36 15 -1.</_>
        <_>
          12 0 12 15 3.</_></rects>
      <tilted>0</tilted></_>
    <_>
      <rects>
        <_>
          0 0 36 28 -1.</_>
        <_>
          12 0 12 28 3.</_></rects>
      <tilted>0</tilted></_>
    <_>
      <rects>
        <_>
          0 0 36 34 -1.</_>
        <_>
          12 0 12 34 3.</_></rects>
      <tilted>0</tilted></_>
    <_>
      <rects>
        <_>
          0 0 36 36 -1.</_>
        <_>
          12 0 12 36 3.</_></rects>
      <tilted>0</tilted></_>
    <_>
      <rects>
        <_>
          0 0 22 14 -1.</_>
        <_>
          0 7 22 7 2.</_></rects>
      <tilted>0</tilted></_>
    <_>
      <rects>
        <_>
          0 1 18 29 -1.</_>
        <_>
          9 1 9 29 2.</_></rects>
      <tilted>0</tilted></_>
    <_>
      <rects>
        <_>
          0 1 36 10 -1.</_>
        <_>
          12 1 12 10 3.</_></rects>
      <tilted>0</tilted></_>
    <_>
      <rects>
        <_>
          0 1 36 31 -1.</_>
        <_>
          12 1 12 31 3.</_></rects>
      <tilted>0</tilted></_>
    <_>
      <rects>
        <_>
          0 2 4 27 -1.</_>
        <_>
          2 2 2 27 2.</_></rects>
      <tilted>0</tilted></_>
    <_>
      <rects>
        <_>
          0 2 12 28 -1.</_>
        <_>
          6 2 6 28 2.</_></rects>
      <tilted>0</tilted></_>
    <_>
      <rects>
        <_>
          0 3 36 30 -1.</_>
        <_>
          12 3 12 30 3.</_></rects>
      <tilted>0</tilted></_>
    <_>
      <rects>
        <_>
          0 4 4 25 -1.</_>
        <_>
          2 4 2 25 2.</_></rects>
      <tilted>0</tilted></_>
    <_>
      <rects>
        <_>
          0 5 8 29 -1.</_>
        <_>
          4 5 4 29 2.</_></rects>
      <tilted>0</tilted></_>
    <_>
      <rects>
        <_>
          0 8 2 14 -1.</_>
        <_>
          1 8 1 14 2.</_></rects>
      <tilted>0</tilted></_>
    <_>
      <rects>
        <_>
          0 17 22 10 -1.</_>
        <_>
          11 17 11 10 2.</_></rects>
      <tilted>0</tilted></_>
    <_>
      <rects>
        <_>
          0 28 22 3 -1.</_>
        <_>
          11 28 11 3 2.</_></rects>
      <tilted>0</tilted></_>
    <_>
      <rects>
        <_>
          1 0 21 24 -1.</_>
        <_>
          8 0 7 24 3.</_></rects>
      <tilted>0</tilted></_>
    <_>
      <rects>
        <_>
          1 0 28 8 -1.</_>
        <_>
          1 4 28 4 2.</_></rects>
      <tilted>0</tilted></_>
    <_>
      <rects>
        <_>
          1 0 35 12 -1.</_>
        <_>
          1 6 35 6 2.</_></rects>
      <tilted>0</tilted></_>
    <_>
      <rects>
        <_>
          1 13 3 21 -1.</_>
        <_>
          2 13 1 21 3.</_></rects>
      <tilted>0</tilted></_>
    <_>
      <rects>
        <_>
          1 14 1 3 -1.</_>
        <_>
          1 15 1 1 3.</_></rects>
      <tilted>0</tilted></_>
    <_>
      <rects>
        <_>
          2 0 11 16 -1.</_>
        <_>
          2 8 11 8 2.</_></rects>
      <tilted>0</tilted></_>
    <_>
      <rects>
        <_>
          2 0 34 33 -1.</_>
        <_>
          2 11 34 11 3.</_></rects>
      <tilted>0</tilted></_>
    <_>
      <rects>
        <_>
          2 2 18 21 -1.</_>
        <_>
          8 2 6 21 3.</_></rects>
      <tilted>0</tilted></_>
    <_>
      <rects>
        <_>
          4 0 27 12 -1.</_>
        <_>
          4 6 27 6 2.</_></rects>
      <tilted>0</tilted></_>
    <_>
      <rects>
        <_>
          4 17 9 6 -1.</_>
        <_>
          7 17 3 6 3.</_></rects>
      <tilted>0</tilted></_>
    <_>
      <rects>
        <_>
          5 19 7 16 -1.</_>
        <_>
          5 27 7 8 2.</_></rects>
      <tilted>0</tilted></_>
    <_>
      <rects>
        <_>
          6 2 14 18 -1.</_>
        <_>
          6 2 7 9 2.</_>
        <_>
          13 11 7 9 2.</_></rects>
      <tilted>0</tilted></_>
    <_>
      <rects>
        <_>
          6 3 10 14 -1.</_>
        <_>
          6 10 10 7 2.</_></rects>
      <tilted>0</tilted></_>
    <_>
      <rects>
        <_>
          6 4 16 2 -1.</_>
        <_>
          14 4 8 2 2.</_></rects>
      <tilted>0</tilted></_>
    <_>
      <rects>
        <_>
          6 12 2 2 -1.</_>
        <_>
          6 12 1 1 2.</_>
        <_>
          7 13 1 1 2.</_></rects>
      <tilted>0</tilted></_>
    <_>
      <rects>
        <_>
          6 17 9 2 -1.</_>
        <_>
          9 17 3 2 3.</_></rects>
      <tilted>0</tilted></_>
    <_>
      <rects>
        <_>
          6 22 24 14 -1.</_>
        <_>
          6 29 24 7 2.</_></rects>
      <tilted>0</tilted></_>
    <_>
      <rects>
        <_>
          7 1 16 13 -1.</_>
        <_>
          15 1 8 13 2.</_></rects>
      <tilted>0</tilted></_>
    <_>
      <rects>
        <_>
          7 10 28 10 -1.</_>
        <_>
          7 10 14 5 2.</_>
        <_>
          21 15 14 5 2.</_></rects>
      <tilted>0</tilted></_>
    <_>
      <rects>
        <_>
          8 14 22 14 -1.</_>
        <_>
          8 14 11 7 2.</_>
        <_>
          19 21 11 7 2.</_></rects>
      <tilted>0</tilted></_>
    <_>
      <rects>
        <_>
          9 1 24 16 -1.</_>
        <_>
          9 9 24 8 2.</_></rects>
      <tilted>0</tilted></_>
    <_>
      <rects>
        <_>
          10 0 26 6 -1.</_>
        <_>
          10 3 26 3 2.</_></rects>
      <tilted>0</tilted></_>
    <_>
      <rects>
        <_>
          10 26 26 10 -1.</_>
        <_>
          23 26 13 10 2.</_></rects>
      <tilted>0</tilted></_>
    <_>
      <rects>
        <_>
          11 0 10 2 -1.</_>
        <_>
          11 1 10 1 2.</_></rects>
      <tilted>0</tilted></_>
    <_>
      <rects>
        <_>
          11 6 12 8 -1.</_>
        <_>
          15 6 4 8 3.</_></rects>
      <tilted>0</tilted></_>
    <_>
      <rects>
        <_>
          11 27 2 2 -1.</_>
        <_>
          11 27 1 1 2.</_>
        <_>
          12 28 1 1 2.</_></rects>
      <tilted>0</tilted></_>
    <_>
      <rects>
        <_>
          12 9 3 21 -1.</_>
        <_>
          12 16 3 7 3.</_></rects>
      <tilted>0</tilted></_>
    <_>
      <rects>
        <_>
          14 7 3 1 -1.</_>
        <_>
          15 7 1 1 3.</_></rects>
      <tilted>0</tilted></_>
    <_>
      <rects>
        <_>
          14 8 16 26 -1.</_>
        <_>
          14 8 8 13 2.</_>
        <_>
          22 21 8 13 2.</_></rects>
      <tilted>0</tilted></_>
    <_>
      <rects>
        <_>
          14 11 7 15 -1.</_>
        <_>
          14 16 7 5 3.</_></rects>
      <tilted>0</tilted></_>
    <_>
      <rects>
        <_>
          15 2 1 24 -1.</_>
        <_>
          15 14 1 12 2.</_></rects>
      <tilted>0</tilted></_>
    <_>
      <rects>
        <_>
          15 13 1 3 -1.</_>
        <_>
          15 14 1 1 3.</_></rects>
      <tilted>0</tilted></_>
    <_>
      <rects>
        <_>
          15 21 3 2 -1.</_>
        <_>
          16 21 1 2 3.</_></rects>
      <tilted>0</tilted></_>
    <_>
      <rects>
        <_>
          16 20 19 16 -1.</_>
        <_>
          16 28 19 8 2.</_></rects>
      <tilted>0</tilted></_>
    <_>
      <rects>
        <_>
          16 32 7 4 -1.</_>
        <_>
          16 34 7 2 2.</_></rects>
      <tilted>0</tilted></_>
    <_>
      <rects>
        <_>
          17 0 18 31 -1.</_>
        <_>
          26 0 9 31 2.</_></rects>
      <tilted>0</tilted></_>
    <_>
      <rects>
        <_>
          17 28 15 8 -1.</_>
        <_>
          17 32 15 4 2.</_></rects>
      <tilted>0</tilted></_>
    <_>
      <rects>
        <_>
          18 1 11 9 -1.</_>
        <_>
          18 4 11 3 3.</_></rects>
      <tilted>0</tilted></_>
    <_>
      <rects>
        <_>
          19 6 1 24 -1.</_>
        <_>
          19 14 1 8 3.</_></rects>
      <tilted>0</tilted></_>
    <_>
      <rects>
        <_>
          19 18 2 2 -1.</_>
        <_>
          19 18 1 1 2.</_>
        <_>
          20 19 1 1 2.</_></rects>
      <tilted>0</tilted></_>
    <_>
      <rects>
        <_>
          20 3 10 20 -1.</_>
        <_>
          20 13 10 10 2.</_></rects>
      <tilted>0</tilted></_>
    <_>
      <rects>
        <_>
          20 10 2 10 -1.</_>
        <_>
          20 10 1 5 2.</_>
        <_>
          21 15 1 5 2.</_></rects>
      <tilted>0</tilted></_>
    <_>
      <rects>
        <_>
          21 18 15 14 -1.</_>
        <_>
          21 25 15 7 2.</_></rects>
      <tilted>0</tilted></_>
    <_>
      <rects>
        <_>
          22 0 14 35 -1.</_>
        <_>
          29 0 7 35 2.</_></rects>
      <tilted>0</tilted></_>
    <_>
      <rects>
        <_>
          22 3 14 33 -1.</_>
        <_>
          29 3 7 33 2.</_></rects>
      <tilted>0</tilted></_>
    <_>
      <rects>
        <_>
          22 14 3 18 -1.</_>
        <_>
          22 23 3 9 2.</_></rects>
      <tilted>0</tilted></_>
    <_>
      <rects>
        <_>
          22 16 14 20 -1.</_>
        <_>
          22 26 14 10 2.</_></rects>
      <tilted>0</tilted></_>
    <_>
      <rects>
        <_>
          23 1 10 20 -1.</_>
        <_>
          23 11 10 10 2.</_></rects>
      <tilted>0</tilted></_>
    <_>
      <rects>
        <_>
          24 9 12 3 -1.</_>
        <_>
          24 10 12 1 3.</_></rects>
      <tilted>0</tilted></_>
    <_>
      <rects>
        <_>
          26 4 10 29 -1.</_>
        <_>
          31 4 5 29 2.</_></rects>
      <tilted>0</tilted></_>
    <_>
      <rects>
        <_>
          26 9 10 26 -1.</_>
        <_>
          31 9 5 26 2.</_></rects>
      <tilted>0</tilted></_>
    <_>
      <rects>
        <_>
          26 19 10 11 -1.</_>
        <_>
          31 19 5 11 2.</_></rects>
      <tilted>0</tilted></_>
    <_>
      <rects>
        <_>
          26 20 3 1 -1.</_>
        <_>
          27 20 1 1 3.</_></rects>
      <tilted>0</tilted></_>
    <_>
      <rects>
        <_>
          28 6 6 6 -1.</_>
        <_>
          28 6 3 3 2.</_>
        <_>
          31 9 3 3 2.</_></rects>
      <tilted>0</tilted></_>
    <_>
      <rects>
        <_>
          28 13 6 4 -1.</_>
        <_>
          30 13 2 4 3.</_></rects>
      <tilted>0</tilted></_>
    <_>
      <rects>
        <_>
          29 4 6 26 -1.</_>
        <_>
          32 4 3 26 2.</_></rects>
      <tilted>0</tilted></_>
    <_>
      <rects>
        <_>
          29 10 6 25 -1.</_>
        <_>
          32 10 3 25 2.</_></rects>
      <tilted>0</tilted></_>
    <_>
      <rects>
        <_>
          30 0 6 36 -1.</_>
        <_>
          33 0 3 36 2.</_></rects>
      <tilted>0</tilted></_>
    <_>
      <rects>
        <_>
          30 1 6 35 -1.</_>
        <_>
          33 1 3 35 2.</_></rects>
      <tilted>0</tilted></_>
    <_>
      <rects>
        <_>
          30 16 3 3 -1.</_>
        <_>
          30 17 3 1 3.</_></rects>
      <tilted>0</tilted></_>
    <_>
      <rects>
        <_>
          31 16 1 3 -1.</_>
        <_>
          31 17 1 1 3.</_></rects>
      <tilted>0</tilted></_>
    <_>
      <rects>
        <_>
          32 5 3 23 -1.</_>
        <_>
          33 5 1 23 3.</_></rects>
      <tilted>0</tilted></_>
    <_>
      <rects>
        <_>
          32 32 4 2 -1.</_>
        <_>
          32 33 4 1 2.</_></rects>
      <tilted>0</tilted></_>
    <_>
      <rects>
        <_>
          34 9 2 16 -1.</_>
        <_>
          35 9 1 16 2.</_></rects>
      <tilted>0</tilted></_>
    <_>
      <rects>
        <_>
          34 13 1 4 -1.</_>
        <_>
          34 15 1 2 2.</_></rects>
      <tilted>0</tilted></_></features></cascade>
</opencv_storage>
