<?xml version="1.0"?>
<opencv_storage>
<cascade>
  <stageType>BOOST</stageType>
  <featureType>HAAR</featureType>
  <height>40</height>
  <width>40</width>
  <stageParams>
    <boostType>GAB</boostType>
    <minHitRate>9.9500000476837158e-01</minHitRate>
    <maxFalseAlarm>5.0000000000000000e-01</maxFalseAlarm>
    <weightTrimRate>9.4999998807907104e-01</weightTrimRate>
    <maxDepth>1</maxDepth>
    <maxWeakCount>100</maxWeakCount></stageParams>
  <featureParams>
    <maxCatCount>0</maxCatCount>
    <featSize>1</featSize>
    <mode>BASIC</mode></featureParams>
  <stageNum>14</stageNum>
  <stages>
    <!-- stage 0 -->
    <_>
      <maxWeakCount>6</maxWeakCount>
      <stageThreshold>-2.2884206771850586e+00</stageThreshold>
      <weakClassifiers>
        <_>
          <internalNodes>
            0 -1 81 -1.0482646524906158e-01</internalNodes>
          <leafValues>
            3.2307693362236023e-01 -8.8257938623428345e-01</leafValues></_>
        <_>
          <internalNodes>
            0 -1 0 5.1218088716268539e-02</internalNodes>
          <leafValues>
            -7.6415687799453735e-01 2.2891068458557129e-01</leafValues></_>
        <_>
          <internalNodes>
            0 -1 82 -5.2325807511806488e-02</internalNodes>
          <leafValues>
            4.3224754929542542e-01 -5.2803415060043335e-01</leafValues></_>
        <_>
          <internalNodes>
            0 -1 11 9.4924250151962042e-04</internalNodes>
          <leafValues>
            -5.5158376693725586e-01 3.5303723812103271e-01</leafValues></_>
        <_>
          <internalNodes>
            0 -1 29 4.2375929653644562e-02</internalNodes>
          <leafValues>
            -3.2562619447708130e-01 5.5238550901412964e-01</leafValues></_>
        <_>
          <internalNodes>
            0 -1 84 5.9926033020019531e-02</internalNodes>
          <leafValues>
            -2.2950784862041473e-01 9.0935754776000977e-01</leafValues></_></weakClassifiers></_>
    <!-- stage 1 -->
    <_>
      <maxWeakCount>7</maxWeakCount>
      <stageThreshold>-1.8985403776168823e+00</stageThreshold>
      <weakClassifiers>
        <_>
          <internalNodes>
            0 -1 72 -1.2250123918056488e-01</internalNodes>
          <leafValues>
            -8.5470089688897133e-03 -9.0678822994232178e-01</leafValues></_>
        <_>
          <internalNodes>
            0 -1 89 -3.1559035181999207e-02</internalNodes>
          <leafValues>
            3.2808232307434082e-01 -6.7680275440216064e-01</leafValues></_>
        <_>
          <internalNodes>
            0 -1 67 -1.6966562252491713e-03</internalNodes>
          <leafValues>
            4.8120504617691040e-01 -3.8445141911506653e-01</leafValues></_>
        <_>
          <internalNodes>
            0 -1 23 1.5993691980838776e-02</internalNodes>
          <leafValues>
            2.4698336422443390e-01 -6.8908929824829102e-01</leafValues></_>
        <_>
          <internalNodes>
            0 -1 16 2.0636455714702606e-01</internalNodes>
          <leafValues>
            -3.5539349913597107e-01 5.2086627483367920e-01</leafValues></_>
        <_>
          <internalNodes>
            0 -1 15 -3.1220626831054688e-01</internalNodes>
          <leafValues>
            8.9393502473831177e-01 -1.7831058800220490e-01</leafValues></_>
        <_>
          <internalNodes>
            0 -1 49 -1.0082639753818512e-02</internalNodes>
          <leafValues>
            3.5622274875640869e-01 -6.7345911264419556e-01</leafValues></_></weakClassifiers></_>
    <!-- stage 2 -->
    <_>
      <maxWeakCount>6</maxWeakCount>
      <stageThreshold>-1.7385777235031128e+00</stageThreshold>
      <weakClassifiers>
        <_>
          <internalNodes>
            0 -1 93 -3.0737493187189102e-02</internalNodes>
          <leafValues>
            -2.9870128631591797e-01 -8.9473682641983032e-01</leafValues></_>
        <_>
          <internalNodes>
            0 -1 21 5.7626757770776749e-02</internalNodes>
          <leafValues>
            -7.4698847532272339e-01 5.0977177917957306e-02</leafValues></_>
        <_>
          <internalNodes>
            0 -1 17 -3.5810918780043721e-04</internalNodes>
          <leafValues>
            3.3097958564758301e-01 -4.7708630561828613e-01</leafValues></_>
        <_>
          <internalNodes>
            0 -1 47 -1.1207451112568378e-02</internalNodes>
          <leafValues>
            4.3879982829093933e-01 -3.5171505808830261e-01</leafValues></_>
        <_>
          <internalNodes>
            0 -1 8 7.5258007273077965e-03</internalNodes>
          <leafValues>
            -3.8419395685195923e-01 5.3004854917526245e-01</leafValues></_>
        <_>
          <internalNodes>
            0 -1 83 6.8167690187692642e-04</internalNodes>
          <leafValues>
            -4.8243793845176697e-01 3.6912906169891357e-01</leafValues></_></weakClassifiers></_>
    <!-- stage 3 -->
    <_>
      <maxWeakCount>7</maxWeakCount>
      <stageThreshold>-2.2044529914855957e+00</stageThreshold>
      <weakClassifiers>
        <_>
          <internalNodes>
            0 -1 14 3.9687544107437134e-01</internalNodes>
          <leafValues>
            -8.7301588058471680e-01 -1.6666667163372040e-01</leafValues></_>
        <_>
          <internalNodes>
            0 -1 30 4.5178800821304321e-02</internalNodes>
          <leafValues>
            -7.1805047988891602e-01 2.8380606323480606e-02</leafValues></_>
        <_>
          <internalNodes>
            0 -1 32 5.3954571485519409e-02</internalNodes>
          <leafValues>
            -2.4022154510021210e-01 7.9704219102859497e-01</leafValues></_>
        <_>
          <internalNodes>
            0 -1 90 -1.7871711403131485e-02</internalNodes>
          <leafValues>
            3.9943400025367737e-01 -4.9822053313255310e-01</leafValues></_>
        <_>
          <internalNodes>
            0 -1 57 2.3441755911335349e-04</internalNodes>
          <leafValues>
            -2.6931348443031311e-01 5.0485908985137939e-01</leafValues></_>
        <_>
          <internalNodes>
            0 -1 2 4.4715013355016708e-02</internalNodes>
          <leafValues>
            -3.2556214928627014e-01 4.5466762781143188e-01</leafValues></_>
        <_>
          <internalNodes>
            0 -1 97 1.0137644130736589e-03</internalNodes>
          <leafValues>
            -3.1733271479606628e-01 4.9241411685943604e-01</leafValues></_></weakClassifiers></_>
    <!-- stage 4 -->
    <_>
      <maxWeakCount>5</maxWeakCount>
      <stageThreshold>-1.5833879709243774e+00</stageThreshold>
      <weakClassifiers>
        <_>
          <internalNodes>
            0 -1 28 2.8719067573547363e-02</internalNodes>
          <leafValues>
            -8.9200866222381592e-01 -3.9325842261314392e-01</leafValues></_>
        <_>
          <internalNodes>
            0 -1 71 -1.0021416842937469e-01</internalNodes>
          <leafValues>
            9.6137553453445435e-02 -6.0223323106765747e-01</leafValues></_>
        <_>
          <internalNodes>
            0 -1 58 -3.9550047367811203e-02</internalNodes>
          <leafValues>
            -1. 7.8858681023120880e-02</leafValues></_>
        <_>
          <internalNodes>
            0 -1 34 3.9902206510305405e-02</internalNodes>
          <leafValues>
            2.1022380888462067e-01 -7.5879651308059692e-01</leafValues></_>
        <_>
          <internalNodes>
            0 -1 45 -2.1028591319918633e-02</internalNodes>
          <leafValues>
            -8.9527267217636108e-01 9.2041507363319397e-02</leafValues></_></weakClassifiers></_>
    <!-- stage 5 -->
    <_>
      <maxWeakCount>7</maxWeakCount>
      <stageThreshold>-1.9120591878890991e+00</stageThreshold>
      <weakClassifiers>
        <_>
          <internalNodes>
            0 -1 95 5.3446613252162933e-02</internalNodes>
          <leafValues>
            -8.4186047315597534e-01 3.1034481525421143e-01</leafValues></_>
        <_>
          <internalNodes>
            0 -1 20 1.9291454553604126e-01</internalNodes>
          <leafValues>
            -6.7881578207015991e-01 3.1581178307533264e-02</leafValues></_>
        <_>
          <internalNodes>
            0 -1 60 -1.6651648283004761e-01</internalNodes>
          <leafValues>
            9.2132937908172607e-01 -2.0195625722408295e-01</leafValues></_>
        <_>
          <internalNodes>
            0 -1 19 1.8639769405126572e-02</internalNodes>
          <leafValues>
            -4.0064752101898193e-01 4.0366876125335693e-01</leafValues></_>
        <_>
          <internalNodes>
            0 -1 26 -5.8076409623026848e-03</internalNodes>
          <leafValues>
            3.2679229974746704e-01 -4.0491834282875061e-01</leafValues></_>
        <_>
          <internalNodes>
            0 -1 65 7.5014057802036405e-04</internalNodes>
          <leafValues>
            -1.6522096097469330e-01 6.6432994604110718e-01</leafValues></_>
        <_>
          <internalNodes>
            0 -1 33 2.0326554775238037e-02</internalNodes>
          <leafValues>
            -3.4192550182342529e-01 4.4009801745414734e-01</leafValues></_></weakClassifiers></_>
    <!-- stage 6 -->
    <_>
      <maxWeakCount>8</maxWeakCount>
      <stageThreshold>-1.8910810947418213e+00</stageThreshold>
      <weakClassifiers>
        <_>
          <internalNodes>
            0 -1 94 -6.0144215822219849e-02</internalNodes>
          <leafValues>
            7.5000000000000000e-01 -8.3455884456634521e-01</leafValues></_>
        <_>
          <internalNodes>
            0 -1 4 1.2660969048738480e-02</internalNodes>
          <leafValues>
            -5.6355243921279907e-01 1.5012222528457642e-01</leafValues></_>
        <_>
          <internalNodes>
            0 -1 61 -9.6695308457128704e-05</internalNodes>
          <leafValues>
            2.7127864956855774e-01 -4.3828573822975159e-01</leafValues></_>
        <_>
          <internalNodes>
            0 -1 66 -2.4810247123241425e-02</internalNodes>
          <leafValues>
            2.2536732256412506e-01 -5.3463774919509888e-01</leafValues></_>
        <_>
          <internalNodes>
            0 -1 92 1.2506585335358977e-03</internalNodes>
          <leafValues>
            2.1287092566490173e-01 -6.2479346990585327e-01</leafValues></_>
        <_>
          <internalNodes>
            0 -1 98 3.4823671740014106e-05</internalNodes>
          <leafValues>
            -3.7369522452354431e-01 3.0386653542518616e-01</leafValues></_>
        <_>
          <internalNodes>
            0 -1 77 3.4889956004917622e-03</internalNodes>
          <leafValues>
            2.0751135051250458e-01 -6.5774744749069214e-01</leafValues></_>
        <_>
          <internalNodes>
            0 -1 75 1.7167659825645387e-04</internalNodes>
          <leafValues>
            -3.2673850655555725e-01 3.9199751615524292e-01</leafValues></_></weakClassifiers></_>
    <!-- stage 7 -->
    <_>
      <maxWeakCount>7</maxWeakCount>
      <stageThreshold>-1.7069158554077148e+00</stageThreshold>
      <weakClassifiers>
        <_>
          <internalNodes>
            0 -1 5 -2.1009956300258636e-01</internalNodes>
          <leafValues>
            6.0000002384185791e-01 -8.3103764057159424e-01</leafValues></_>
        <_>
          <internalNodes>
            0 -1 86 3.1092125922441483e-02</internalNodes>
          <leafValues>
            -6.4649838209152222e-01 1.1824373155832291e-02</leafValues></_>
        <_>
          <internalNodes>
            0 -1 6 3.4386582672595978e-02</internalNodes>
          <leafValues>
            -5.3484541177749634e-01 1.9121430814266205e-01</leafValues></_>
        <_>
          <internalNodes>
            0 -1 96 1.1878231307491660e-03</internalNodes>
          <leafValues>
            -2.3698933422565460e-01 5.4163450002670288e-01</leafValues></_>
        <_>
          <internalNodes>
            0 -1 56 -2.5149643421173096e-02</internalNodes>
          <leafValues>
            -9.2299151420593262e-01 1.3582271337509155e-01</leafValues></_>
        <_>
          <internalNodes>
            0 -1 39 -1.0124636813998222e-02</internalNodes>
          <leafValues>
            -6.4842420816421509e-01 1.6806355118751526e-01</leafValues></_>
        <_>
          <internalNodes>
            0 -1 87 5.7261124311480671e-05</internalNodes>
          <leafValues>
            -3.2932603359222412e-01 3.8108605146408081e-01</leafValues></_></weakClassifiers></_>
    <!-- stage 8 -->
    <_>
      <maxWeakCount>9</maxWeakCount>
      <stageThreshold>-1.7904902696609497e+00</stageThreshold>
      <weakClassifiers>
        <_>
          <internalNodes>
            0 -1 80 1.1889211088418961e-01</internalNodes>
          <leafValues>
            -8.2982617616653442e-01 1.</leafValues></_>
        <_>
          <internalNodes>
            0 -1 79 3.9547339081764221e-02</internalNodes>
          <leafValues>
            -6.7540240287780762e-01 -3.8283456116914749e-02</leafValues></_>
        <_>
          <internalNodes>
            0 -1 22 1.6146356239914894e-02</internalNodes>
          <leafValues>
            -4.0269947052001953e-01 2.7990931272506714e-01</leafValues></_>
        <_>
          <internalNodes>
            0 -1 31 4.6621628105640411e-02</internalNodes>
          <leafValues>
            1.0929853469133377e-01 -8.8640522956848145e-01</leafValues></_>
        <_>
          <internalNodes>
            0 -1 74 -1.9867278751917183e-04</internalNodes>
          <leafValues>
            4.2682832479476929e-01 -2.4851173162460327e-01</leafValues></_>
        <_>
          <internalNodes>
            0 -1 63 -2.5077429600059986e-03</internalNodes>
          <leafValues>
            -9.4639229774475098e-01 1.0952670127153397e-01</leafValues></_>
        <_>
          <internalNodes>
            0 -1 85 -2.1690450608730316e-02</internalNodes>
          <leafValues>
            3.1469368934631348e-01 -3.5740667581558228e-01</leafValues></_>
        <_>
          <internalNodes>
            0 -1 46 -4.1732550016604364e-05</internalNodes>
          <leafValues>
            2.9901272058486938e-01 -3.8898822665214539e-01</leafValues></_>
        <_>
          <internalNodes>
            0 -1 52 2.3698635399341583e-02</internalNodes>
          <leafValues>
            2.1817912161350250e-01 -6.1311995983123779e-01</leafValues></_></weakClassifiers></_>
    <!-- stage 9 -->
    <_>
      <maxWeakCount>7</maxWeakCount>
      <stageThreshold>-1.6823036670684814e+00</stageThreshold>
      <weakClassifiers>
        <_>
          <internalNodes>
            0 -1 1 -2.6270410418510437e-01</internalNodes>
          <leafValues>
            8.4615385532379150e-01 -8.3134740591049194e-01</leafValues></_>
        <_>
          <internalNodes>
            0 -1 68 1.2842200696468353e-02</internalNodes>
          <leafValues>
            -6.3945877552032471e-01 1.4349241554737091e-01</leafValues></_>
        <_>
          <internalNodes>
            0 -1 40 -2.2156462073326111e-02</internalNodes>
          <leafValues>
            2.8750786185264587e-01 -4.5199847221374512e-01</leafValues></_>
        <_>
          <internalNodes>
            0 -1 91 3.6703908699564636e-04</internalNodes>
          <leafValues>
            -3.1391483545303345e-01 4.4916972517967224e-01</leafValues></_>
        <_>
          <internalNodes>
            0 -1 37 2.2720794368069619e-04</internalNodes>
          <leafValues>
            -3.5294416546821594e-01 3.5443118214607239e-01</leafValues></_>
        <_>
          <internalNodes>
            0 -1 64 -7.9503906890749931e-03</internalNodes>
          <leafValues>
            -7.6510739326477051e-01 1.9787798821926117e-01</leafValues></_>
        <_>
          <internalNodes>
            0 -1 69 -4.3073473498225212e-03</internalNodes>
          <leafValues>
            2.2558566927909851e-01 -5.2068370580673218e-01</leafValues></_></weakClassifiers></_>
    <!-- stage 10 -->
    <_>
      <maxWeakCount>7</maxWeakCount>
      <stageThreshold>-1.6613106727600098e+00</stageThreshold>
      <weakClassifiers>
        <_>
          <internalNodes>
            0 -1 36 4.3000459671020508e-02</internalNodes>
          <leafValues>
            -8.3733826875686646e-01 4.5454546809196472e-01</leafValues></_>
        <_>
          <internalNodes>
            0 -1 10 8.4651133511215448e-04</internalNodes>
          <leafValues>
            -7.1902459859848022e-01 -6.1876196414232254e-02</leafValues></_>
        <_>
          <internalNodes>
            0 -1 24 4.7994457185268402e-02</internalNodes>
          <leafValues>
            1.0943742841482162e-01 -7.4586504697799683e-01</leafValues></_>
        <_>
          <internalNodes>
            0 -1 13 3.1162623781710863e-03</internalNodes>
          <leafValues>
            -6.0237926244735718e-01 2.2864411771297455e-01</leafValues></_>
        <_>
          <internalNodes>
            0 -1 70 3.8527976721525192e-04</internalNodes>
          <leafValues>
            1.3112284243106842e-01 -8.6632978916168213e-01</leafValues></_>
        <_>
          <internalNodes>
            0 -1 59 -1.9279883708804846e-03</internalNodes>
          <leafValues>
            2.9027062654495239e-01 -3.9924961328506470e-01</leafValues></_>
        <_>
          <internalNodes>
            0 -1 53 4.7132244799286127e-04</internalNodes>
          <leafValues>
            -3.2783049345016479e-01 3.9407405257225037e-01</leafValues></_></weakClassifiers></_>
    <!-- stage 11 -->
    <_>
      <maxWeakCount>9</maxWeakCount>
      <stageThreshold>-1.5082310438156128e+00</stageThreshold>
      <weakClassifiers>
        <_>
          <internalNodes>
            0 -1 3 -1.6931429505348206e-01</internalNodes>
          <leafValues>
            1. -8.3150184154510498e-01</leafValues></_>
        <_>
          <internalNodes>
            0 -1 48 -4.8744119703769684e-03</internalNodes>
          <leafValues>
            -8.6842902004718781e-02 -7.6046282052993774e-01</leafValues></_>
        <_>
          <internalNodes>
            0 -1 44 1.2893611565232277e-02</internalNodes>
          <leafValues>
            -2.9325574636459351e-01 3.7218788266181946e-01</leafValues></_>
        <_>
          <internalNodes>
            0 -1 73 4.3112851679325104e-02</internalNodes>
          <leafValues>
            1.2991049885749817e-01 -8.1525909900665283e-01</leafValues></_>
        <_>
          <internalNodes>
            0 -1 78 5.6902240030467510e-03</internalNodes>
          <leafValues>
            2.1599937975406647e-01 -6.4784753322601318e-01</leafValues></_>
        <_>
          <internalNodes>
            0 -1 99 2.5878143496811390e-03</internalNodes>
          <leafValues>
            1.9053255021572113e-01 -5.9623253345489502e-01</leafValues></_>
        <_>
          <internalNodes>
            0 -1 12 1.8700551241636276e-02</internalNodes>
          <leafValues>
            -1.8696892261505127e-01 6.8380308151245117e-01</leafValues></_>
        <_>
          <internalNodes>
            0 -1 62 -1.3669792562723160e-02</internalNodes>
          <leafValues>
            -9.6497011184692383e-01 1.3247463107109070e-01</leafValues></_>
        <_>
          <internalNodes>
            0 -1 43 2.0610129460692406e-02</internalNodes>
          <leafValues>
            2.0658971369266510e-01 -4.9941021203994751e-01</leafValues></_></weakClassifiers></_>
    <!-- stage 12 -->
    <_>
      <maxWeakCount>8</maxWeakCount>
      <stageThreshold>-1.7762573957443237e+00</stageThreshold>
      <weakClassifiers>
        <_>
          <internalNodes>
            0 -1 7 -2.6869034767150879e-01</internalNodes>
          <leafValues>
            1. -8.2982617616653442e-01</leafValues></_>
        <_>
          <internalNodes>
            0 -1 51 1.6499467194080353e-02</internalNodes>
          <leafValues>
            -6.9891995191574097e-01 2.0366294775158167e-03</leafValues></_>
        <_>
          <internalNodes>
            0 -1 76 4.3764075962826610e-04</internalNodes>
          <leafValues>
            -3.4407120943069458e-01 2.9303163290023804e-01</leafValues></_>
        <_>
          <internalNodes>
            0 -1 27 -1.6684593632817268e-02</internalNodes>
          <leafValues>
            -7.6212322711944580e-01 1.3252745568752289e-01</leafValues></_>
        <_>
          <internalNodes>
            0 -1 35 1.7481882125139236e-02</internalNodes>
          <leafValues>
            2.4388414621353149e-01 -6.2690955400466919e-01</leafValues></_>
        <_>
          <internalNodes>
            0 -1 42 1.3792920112609863e-01</internalNodes>
          <leafValues>
            -1.7631870508193970e-01 8.2293653488159180e-01</leafValues></_>
        <_>
          <internalNodes>
            0 -1 100 2.3381805513054132e-03</internalNodes>
          <leafValues>
            1.6147054731845856e-01 -7.4458509683609009e-01</leafValues></_>
        <_>
          <internalNodes>
            0 -1 88 -2.5667337467893958e-04</internalNodes>
          <leafValues>
            4.7187367081642151e-01 -2.6500347256660461e-01</leafValues></_></weakClassifiers></_>
    <!-- stage 13 -->
    <_>
      <maxWeakCount>8</maxWeakCount>
      <stageThreshold>-1.2391922473907471e+00</stageThreshold>
      <weakClassifiers>
        <_>
          <internalNodes>
            0 -1 9 -4.9899067729711533e-02</internalNodes>
          <leafValues>
            1. -8.3486241102218628e-01</leafValues></_>
        <_>
          <internalNodes>
            0 -1 55 -7.0538595318794250e-03</internalNodes>
          <leafValues>
            -1.1799971759319305e-01 -8.2676088809967041e-01</leafValues></_>
        <_>
          <internalNodes>
            0 -1 54 2.3237582296133041e-02</internalNodes>
          <leafValues>
            -5.8196312189102173e-01 1.8745461106300354e-01</leafValues></_>
        <_>
          <internalNodes>
            0 -1 38 2.9352892190217972e-02</internalNodes>
          <leafValues>
            3.1062290072441101e-01 -4.1239258646965027e-01</leafValues></_>
        <_>
          <internalNodes>
            0 -1 41 2.4272504379041493e-04</internalNodes>
          <leafValues>
            2.8127804398536682e-01 -4.6233463287353516e-01</leafValues></_>
        <_>
          <internalNodes>
            0 -1 25 1.1666174978017807e-02</internalNodes>
          <leafValues>
            -3.9679545164108276e-01 3.3062469959259033e-01</leafValues></_>
        <_>
          <internalNodes>
            0 -1 50 5.8111955877393484e-04</internalNodes>
          <leafValues>
            -2.7585902810096741e-01 4.8571532964706421e-01</leafValues></_>
        <_>
          <internalNodes>
            0 -1 18 6.6885387059301138e-04</internalNodes>
          <leafValues>
            -3.2005143165588379e-01 3.7198179960250854e-01</leafValues></_></weakClassifiers></_></stages>
  <features>
    <_>
      <rects>
        <_>
          0 0 14 35 -1.</_>
        <_>
          7 0 7 35 2.</_></rects>
      <tilted>0</tilted></_>
    <_>
      <rects>
        <_>
          0 0 24 35 -1.</_>
        <_>
          12 0 12 35 2.</_></rects>
      <tilted>0</tilted></_>
    <_>
      <rects>
        <_>
          0 2 12 25 -1.</_>
        <_>
          6 2 6 25 2.</_></rects>
      <tilted>0</tilted></_>
    <_>
      <rects>
        <_>
          0 2 20 32 -1.</_>
        <_>
          10 2 10 32 2.</_></rects>
      <tilted>0</tilted></_>
    <_>
      <rects>
        <_>
          0 3 4 31 -1.</_>
        <_>
          2 3 2 31 2.</_></rects>
      <tilted>0</tilted></_>
    <_>
      <rects>
        <_>
          0 3 22 31 -1.</_>
        <_>
          11 3 11 31 2.</_></rects>
      <tilted>0</tilted></_>
    <_>
      <rects>
        <_>
          0 4 12 26 -1.</_>
        <_>
          6 4 6 26 2.</_></rects>
      <tilted>0</tilted></_>
    <_>
      <rects>
        <_>
          0 4 37 36 -1.</_>
        <_>
          0 16 37 12 3.</_></rects>
      <tilted>0</tilted></_>
    <_>
      <rects>
        <_>
          0 8 4 24 -1.</_>
        <_>
          2 8 2 24 2.</_></rects>
      <tilted>0</tilted></_>
    <_>
      <rects>
        <_>
          0 10 12 27 -1.</_>
        <_>
          6 10 6 27 2.</_></rects>
      <tilted>0</tilted></_>
    <_>
      <rects>
        <_>
          0 13 4 4 -1.</_>
        <_>
          2 13 2 4 2.</_></rects>
      <tilted>0</tilted></_>
    <_>
      <rects>
        <_>
          0 13 6 27 -1.</_>
        <_>
          2 13 2 27 3.</_></rects>
      <tilted>0</tilted></_>
    <_>
      <rects>
        <_>
          0 14 3 18 -1.</_>
        <_>
          0 20 3 6 3.</_></rects>
      <tilted>0</tilted></_>
    <_>
      <rects>
        <_>
          0 20 14 16 -1.</_>
        <_>
          7 20 7 16 2.</_></rects>
      <tilted>0</tilted></_>
    <_>
      <rects>
        <_>
          1 0 39 40 -1.</_>
        <_>
          14 0 13 40 3.</_></rects>
      <tilted>0</tilted></_>
    <_>
      <rects>
        <_>
          1 1 39 35 -1.</_>
        <_>
          14 1 13 35 3.</_></rects>
      <tilted>0</tilted></_>
    <_>
      <rects>
        <_>
          1 1 39 39 -1.</_>
        <_>
          14 1 13 39 3.</_></rects>
      <tilted>0</tilted></_>
    <_>
      <rects>
        <_>
          1 17 14 3 -1.</_>
        <_>
          1 18 14 1 3.</_></rects>
      <tilted>0</tilted></_>
    <_>
      <rects>
        <_>
          1 20 3 17 -1.</_>
        <_>
          2 20 1 17 3.</_></rects>
      <tilted>0</tilted></_>
    <_>
      <rects>
        <_>
          1 31 39 3 -1.</_>
        <_>
          14 31 13 3 3.</_></rects>
      <tilted>0</tilted></_>
    <_>
      <rects>
        <_>
          2 0 36 39 -1.</_>
        <_>
          2 13 36 13 3.</_></rects>
      <tilted>0</tilted></_>
    <_>
      <rects>
        <_>
          2 0 38 16 -1.</_>
        <_>
          2 8 38 8 2.</_></rects>
      <tilted>0</tilted></_>
    <_>
      <rects>
        <_>
          2 1 16 5 -1.</_>
        <_>
          10 1 8 5 2.</_></rects>
      <tilted>0</tilted></_>
    <_>
      <rects>
        <_>
          2 2 22 20 -1.</_>
        <_>
          2 2 11 10 2.</_>
        <_>
          13 12 11 10 2.</_></rects>
      <tilted>0</tilted></_>
    <_>
      <rects>
        <_>
          2 7 26 18 -1.</_>
        <_>
          2 13 26 6 3.</_></rects>
      <tilted>0</tilted></_>
    <_>
      <rects>
        <_>
          2 20 20 7 -1.</_>
        <_>
          12 20 10 7 2.</_></rects>
      <tilted>0</tilted></_>
    <_>
      <rects>
        <_>
          3 0 18 14 -1.</_>
        <_>
          3 0 9 7 2.</_>
        <_>
          12 7 9 7 2.</_></rects>
      <tilted>0</tilted></_>
    <_>
      <rects>
        <_>
          3 4 18 25 -1.</_>
        <_>
          9 4 6 25 3.</_></rects>
      <tilted>0</tilted></_>
    <_>
      <rects>
        <_>
          4 0 27 6 -1.</_>
        <_>
          4 3 27 3 2.</_></rects>
      <tilted>0</tilted></_>
    <_>
      <rects>
        <_>
          4 0 29 10 -1.</_>
        <_>
          4 5 29 5 2.</_></rects>
      <tilted>0</tilted></_>
    <_>
      <rects>
        <_>
          4 0 30 12 -1.</_>
        <_>
          4 6 30 6 2.</_></rects>
      <tilted>0</tilted></_>
    <_>
      <rects>
        <_>
          4 9 24 20 -1.</_>
        <_>
          4 9 12 10 2.</_>
        <_>
          16 19 12 10 2.</_></rects>
      <tilted>0</tilted></_>
    <_>
      <rects>
        <_>
          4 20 11 20 -1.</_>
        <_>
          4 30 11 10 2.</_></rects>
      <tilted>0</tilted></_>
    <_>
      <rects>
        <_>
          5 0 22 6 -1.</_>
        <_>
          5 3 22 3 2.</_></rects>
      <tilted>0</tilted></_>
    <_>
      <rects>
        <_>
          5 8 22 21 -1.</_>
        <_>
          5 15 22 7 3.</_></rects>
      <tilted>0</tilted></_>
    <_>
      <rects>
        <_>
          5 12 12 18 -1.</_>
        <_>
          9 12 4 18 3.</_></rects>
      <tilted>0</tilted></_>
    <_>
      <rects>
        <_>
          5 22 9 18 -1.</_>
        <_>
          5 31 9 9 2.</_></rects>
      <tilted>0</tilted></_>
    <_>
      <rects>
        <_>
          5 30 8 2 -1.</_>
        <_>
          5 30 4 1 2.</_>
        <_>
          9 31 4 1 2.</_></rects>
      <tilted>0</tilted></_>
    <_>
      <rects>
        <_>
          6 4 24 14 -1.</_>
        <_>
          14 4 8 14 3.</_></rects>
      <tilted>0</tilted></_>
    <_>
      <rects>
        <_>
          6 5 6 32 -1.</_>
        <_>
          6 5 3 16 2.</_>
        <_>
          9 21 3 16 2.</_></rects>
      <tilted>0</tilted></_>
    <_>
      <rects>
        <_>
          6 24 12 16 -1.</_>
        <_>
          6 32 12 8 2.</_></rects>
      <tilted>0</tilted></_>
    <_>
      <rects>
        <_>
          7 1 12 34 -1.</_>
        <_>
          7 1 6 17 2.</_>
        <_>
          13 18 6 17 2.</_></rects>
      <tilted>0</tilted></_>
    <_>
      <rects>
        <_>
          7 4 33 11 -1.</_>
        <_>
          18 4 11 11 3.</_></rects>
      <tilted>0</tilted></_>
    <_>
      <rects>
        <_>
          7 13 14 18 -1.</_>
        <_>
          7 19 14 6 3.</_></rects>
      <tilted>0</tilted></_>
    <_>
      <rects>
        <_>
          7 14 16 7 -1.</_>
        <_>
          15 14 8 7 2.</_></rects>
      <tilted>0</tilted></_>
    <_>
      <rects>
        <_>
          7 22 21 5 -1.</_>
        <_>
          14 22 7 5 3.</_></rects>
      <tilted>0</tilted></_>
    <_>
      <rects>
        <_>
          7 25 2 2 -1.</_>
        <_>
          7 25 1 1 2.</_>
        <_>
          8 26 1 1 2.</_></rects>
      <tilted>0</tilted></_>
    <_>
      <rects>
        <_>
          7 31 26 8 -1.</_>
        <_>
          7 31 13 4 2.</_>
        <_>
          20 35 13 4 2.</_></rects>
      <tilted>0</tilted></_>
    <_>
      <rects>
        <_>
          7 34 33 6 -1.</_>
        <_>
          7 37 33 3 2.</_></rects>
      <tilted>0</tilted></_>
    <_>
      <rects>
        <_>
          8 21 31 16 -1.</_>
        <_>
          8 29 31 8 2.</_></rects>
      <tilted>0</tilted></_>
    <_>
      <rects>
        <_>
          10 23 4 3 -1.</_>
        <_>
          10 24 4 1 3.</_></rects>
      <tilted>0</tilted></_>
    <_>
      <rects>
        <_>
          11 0 29 6 -1.</_>
        <_>
          11 3 29 3 2.</_></rects>
      <tilted>0</tilted></_>
    <_>
      <rects>
        <_>
          11 8 18 13 -1.</_>
        <_>
          17 8 6 13 3.</_></rects>
      <tilted>0</tilted></_>
    <_>
      <rects>
        <_>
          11 16 7 3 -1.</_>
        <_>
          11 17 7 1 3.</_></rects>
      <tilted>0</tilted></_>
    <_>
      <rects>
        <_>
          12 0 27 10 -1.</_>
        <_>
          12 5 27 5 2.</_></rects>
      <tilted>0</tilted></_>
    <_>
      <rects>
        <_>
          12 3 28 8 -1.</_>
        <_>
          26 3 14 8 2.</_></rects>
      <tilted>0</tilted></_>
    <_>
      <rects>
        <_>
          12 12 18 16 -1.</_>
        <_>
          12 12 9 8 2.</_>
        <_>
          21 20 9 8 2.</_></rects>
      <tilted>0</tilted></_>
    <_>
      <rects>
        <_>
          12 30 1 3 -1.</_>
        <_>
          12 31 1 1 3.</_></rects>
      <tilted>0</tilted></_>
    <_>
      <rects>
        <_>
          13 7 14 21 -1.</_>
        <_>
          13 14 14 7 3.</_></rects>
      <tilted>0</tilted></_>
    <_>
      <rects>
        <_>
          14 11 9 10 -1.</_>
        <_>
          14 16 9 5 2.</_></rects>
      <tilted>0</tilted></_>
    <_>
      <rects>
        <_>
          15 0 21 24 -1.</_>
        <_>
          15 12 21 12 2.</_></rects>
      <tilted>0</tilted></_>
    <_>
      <rects>
        <_>
          15 10 1 10 -1.</_>
        <_>
          15 15 1 5 2.</_></rects>
      <tilted>0</tilted></_>
    <_>
      <rects>
        <_>
          15 11 4 14 -1.</_>
        <_>
          15 18 4 7 2.</_></rects>
      <tilted>0</tilted></_>
    <_>
      <rects>
        <_>
          16 0 23 2 -1.</_>
        <_>
          16 1 23 1 2.</_></rects>
      <tilted>0</tilted></_>
    <_>
      <rects>
        <_>
          16 30 16 4 -1.</_>
        <_>
          16 32 16 2 2.</_></rects>
      <tilted>0</tilted></_>
    <_>
      <rects>
        <_>
          17 23 3 2 -1.</_>
        <_>
          18 23 1 2 3.</_></rects>
      <tilted>0</tilted></_>
    <_>
      <rects>
        <_>
          18 26 22 14 -1.</_>
        <_>
          18 33 22 7 2.</_></rects>
      <tilted>0</tilted></_>
    <_>
      <rects>
        <_>
          19 2 3 13 -1.</_>
        <_>
          20 2 1 13 3.</_></rects>
      <tilted>0</tilted></_>
    <_>
      <rects>
        <_>
          21 1 18 6 -1.</_>
        <_>
          21 4 18 3 2.</_></rects>
      <tilted>0</tilted></_>
    <_>
      <rects>
        <_>
          23 29 14 6 -1.</_>
        <_>
          23 32 14 3 2.</_></rects>
      <tilted>0</tilted></_>
    <_>
      <rects>
        <_>
          23 38 2 2 -1.</_>
        <_>
          23 39 2 1 2.</_></rects>
      <tilted>0</tilted></_>
    <_>
      <rects>
        <_>
          24 0 16 35 -1.</_>
        <_>
          32 0 8 35 2.</_></rects>
      <tilted>0</tilted></_>
    <_>
      <rects>
        <_>
          24 1 16 38 -1.</_>
        <_>
          32 1 8 38 2.</_></rects>
      <tilted>0</tilted></_>
    <_>
      <rects>
        <_>
          24 6 8 24 -1.</_>
        <_>
          24 14 8 8 3.</_></rects>
      <tilted>0</tilted></_>
    <_>
      <rects>
        <_>
          24 7 2 2 -1.</_>
        <_>
          24 8 2 1 2.</_></rects>
      <tilted>0</tilted></_>
    <_>
      <rects>
        <_>
          24 29 3 1 -1.</_>
        <_>
          25 29 1 1 3.</_></rects>
      <tilted>0</tilted></_>
    <_>
      <rects>
        <_>
          24 31 6 1 -1.</_>
        <_>
          26 31 2 1 3.</_></rects>
      <tilted>0</tilted></_>
    <_>
      <rects>
        <_>
          24 37 15 2 -1.</_>
        <_>
          29 37 5 2 3.</_></rects>
      <tilted>0</tilted></_>
    <_>
      <rects>
        <_>
          25 15 7 14 -1.</_>
        <_>
          25 22 7 7 2.</_></rects>
      <tilted>0</tilted></_>
    <_>
      <rects>
        <_>
          26 0 13 20 -1.</_>
        <_>
          26 10 13 10 2.</_></rects>
      <tilted>0</tilted></_>
    <_>
      <rects>
        <_>
          28 0 12 29 -1.</_>
        <_>
          34 0 6 29 2.</_></rects>
      <tilted>0</tilted></_>
    <_>
      <rects>
        <_>
          28 4 12 33 -1.</_>
        <_>
          34 4 6 33 2.</_></rects>
      <tilted>0</tilted></_>
    <_>
      <rects>
        <_>
          28 18 12 22 -1.</_>
        <_>
          28 29 12 11 2.</_></rects>
      <tilted>0</tilted></_>
    <_>
      <rects>
        <_>
          30 6 8 8 -1.</_>
        <_>
          30 6 4 4 2.</_>
        <_>
          34 10 4 4 2.</_></rects>
      <tilted>0</tilted></_>
    <_>
      <rects>
        <_>
          30 15 10 20 -1.</_>
        <_>
          35 15 5 20 2.</_></rects>
      <tilted>0</tilted></_>
    <_>
      <rects>
        <_>
          30 16 10 12 -1.</_>
        <_>
          35 16 5 12 2.</_></rects>
      <tilted>0</tilted></_>
    <_>
      <rects>
        <_>
          31 0 9 22 -1.</_>
        <_>
          31 11 9 11 2.</_></rects>
      <tilted>0</tilted></_>
    <_>
      <rects>
        <_>
          31 12 2 1 -1.</_>
        <_>
          32 12 1 1 2.</_></rects>
      <tilted>0</tilted></_>
    <_>
      <rects>
        <_>
          32 5 3 1 -1.</_>
        <_>
          33 5 1 1 3.</_></rects>
      <tilted>0</tilted></_>
    <_>
      <rects>
        <_>
          32 5 8 30 -1.</_>
        <_>
          36 5 4 30 2.</_></rects>
      <tilted>0</tilted></_>
    <_>
      <rects>
        <_>
          32 6 8 29 -1.</_>
        <_>
          36 6 4 29 2.</_></rects>
      <tilted>0</tilted></_>
    <_>
      <rects>
        <_>
          32 10 2 10 -1.</_>
        <_>
          33 10 1 10 2.</_></rects>
      <tilted>0</tilted></_>
    <_>
      <rects>
        <_>
          32 36 8 2 -1.</_>
        <_>
          36 36 4 2 2.</_></rects>
      <tilted>0</tilted></_>
    <_>
      <rects>
        <_>
          34 1 6 39 -1.</_>
        <_>
          37 1 3 39 2.</_></rects>
      <tilted>0</tilted></_>
    <_>
      <rects>
        <_>
          34 10 6 27 -1.</_>
        <_>
          37 10 3 27 2.</_></rects>
      <tilted>0</tilted></_>
    <_>
      <rects>
        <_>
          35 7 4 24 -1.</_>
        <_>
          35 15 4 8 3.</_></rects>
      <tilted>0</tilted></_>
    <_>
      <rects>
        <_>
          35 16 5 3 -1.</_>
        <_>
          35 17 5 1 3.</_></rects>
      <tilted>0</tilted></_>
    <_>
      <rects>
        <_>
          36 7 3 23 -1.</_>
        <_>
          37 7 1 23 3.</_></rects>
      <tilted>0</tilted></_>
    <_>
      <rects>
        <_>
          38 13 2 2 -1.</_>
        <_>
          38 13 1 1 2.</_>
        <_>
          39 14 1 1 2.</_></rects>
      <tilted>0</tilted></_>
    <_>
      <rects>
        <_>
          38 24 2 15 -1.</_>
        <_>
          38 29 2 5 3.</_></rects>
      <tilted>0</tilted></_>
    <_>
      <rects>
        <_>
          39 23 1 9 -1.</_>
        <_>
          39 26 1 3 3.</_></rects>
      <tilted>0</tilted></_></features></cascade>
</opencv_storage>
