<?xml version="1.0"?>
<opencv_storage>
<stage13>
  <maxWeakCount>8</maxWeakCount>
  <stageThreshold>-1.2391922473907471e+00</stageThreshold>
  <weakClassifiers>
    <_>
      <internalNodes>
        0 -1 27407 -4.9899067729711533e-02</internalNodes>
      <leafValues>
        1. -8.3486241102218628e-01</leafValues></_>
    <_>
      <internalNodes>
        0 -1 639657 -7.0538595318794250e-03</internalNodes>
      <leafValues>
        -1.1799971759319305e-01 -8.2676088809967041e-01</leafValues></_>
    <_>
      <internalNodes>
        0 -1 634066 2.3237582296133041e-02</internalNodes>
      <leafValues>
        -5.8196312189102173e-01 1.8745461106300354e-01</leafValues></_>
    <_>
      <internalNodes>
        0 -1 354574 2.9352892190217972e-02</internalNodes>
      <leafValues>
        3.1062290072441101e-01 -4.1239258646965027e-01</leafValues></_>
    <_>
      <internalNodes>
        0 -1 399194 2.4272504379041493e-04</internalNodes>
      <leafValues>
        2.8127804398536682e-01 -4.6233463287353516e-01</leafValues></_>
    <_>
      <internalNodes>
        0 -1 165160 1.1666174978017807e-02</internalNodes>
      <leafValues>
        -3.9679545164108276e-01 3.3062469959259033e-01</leafValues></_>
    <_>
      <internalNodes>
        0 -1 580153 5.8111955877393484e-04</internalNodes>
      <leafValues>
        -2.7585902810096741e-01 4.8571532964706421e-01</leafValues></_>
    <_>
      <internalNodes>
        0 -1 106122 6.6885387059301138e-04</internalNodes>
      <leafValues>
        -3.2005143165588379e-01 3.7198179960250854e-01</leafValues></_></weakClassifiers></stage13>
</opencv_storage>
