<?xml version="1.0"?>
<opencv_storage>
<stage12>
  <maxWeakCount>8</maxWeakCount>
  <stageThreshold>-1.7762573957443237e+00</stageThreshold>
  <weakClassifiers>
    <_>
      <internalNodes>
        0 -1 14293 -2.6869034767150879e-01</internalNodes>
      <leafValues>
        1. -8.2982617616653442e-01</leafValues></_>
    <_>
      <internalNodes>
        0 -1 590528 1.6499467194080353e-02</internalNodes>
      <leafValues>
        -6.9891995191574097e-01 2.0366294775158167e-03</leafValues></_>
    <_>
      <internalNodes>
        0 -1 1064954 4.3764075962826610e-04</internalNodes>
      <leafValues>
        -3.4407120943069458e-01 2.9303163290023804e-01</leafValues></_>
    <_>
      <internalNodes>
        0 -1 190487 -1.6684593632817268e-02</internalNodes>
      <leafValues>
        -7.6212322711944580e-01 1.3252745568752289e-01</leafValues></_>
    <_>
      <internalNodes>
        0 -1 318161 1.7481882125139236e-02</internalNodes>
      <leafValues>
        2.4388414621353149e-01 -6.2690955400466919e-01</leafValues></_>
    <_>
      <internalNodes>
        0 -1 406764 1.3792920112609863e-01</internalNodes>
      <leafValues>
        -1.7631870508193970e-01 8.2293653488159180e-01</leafValues></_>
    <_>
      <internalNodes>
        0 -1 1242288 2.3381805513054132e-03</internalNodes>
      <leafValues>
        1.6147054731845856e-01 -7.4458509683609009e-01</leafValues></_>
    <_>
      <internalNodes>
        0 -1 1194506 -2.5667337467893958e-04</internalNodes>
      <leafValues>
        4.7187367081642151e-01 -2.6500347256660461e-01</leafValues></_></weakClassifiers></stage12>
</opencv_storage>
