<?xml version="1.0"?>
<opencv_storage>
<stage2>
  <maxWeakCount>6</maxWeakCount>
  <stageThreshold>-1.7385777235031128e+00</stageThreshold>
  <weakClassifiers>
    <_>
      <internalNodes>
        0 -1 1214265 -3.0737493187189102e-02</internalNodes>
      <leafValues>
        -2.9870128631591797e-01 -8.9473682641983032e-01</leafValues></_>
    <_>
      <internalNodes>
        0 -1 123895 5.7626757770776749e-02</internalNodes>
      <leafValues>
        -7.4698847532272339e-01 5.0977177917957306e-02</leafValues></_>
    <_>
      <internalNodes>
        0 -1 102253 -3.5810918780043721e-04</internalNodes>
      <leafValues>
        3.3097958564758301e-01 -4.7708630561828613e-01</leafValues></_>
    <_>
      <internalNodes>
        0 -1 444062 -1.1207451112568378e-02</internalNodes>
      <leafValues>
        4.3879982829093933e-01 -3.5171505808830261e-01</leafValues></_>
    <_>
      <internalNodes>
        0 -1 22270 7.5258007273077965e-03</internalNodes>
      <leafValues>
        -3.8419395685195923e-01 5.3004854917526245e-01</leafValues></_>
    <_>
      <internalNodes>
        0 -1 1167849 6.8167690187692642e-04</internalNodes>
      <leafValues>
        -4.8243793845176697e-01 3.6912906169891357e-01</leafValues></_></weakClassifiers></stage2>
</opencv_storage>
