<?xml version="1.0"?>
<opencv_storage>
<cascade>
  <stageType>BOOST</stageType>
  <featureType>HAAR</featureType>
  <height>30</height>
  <width>30</width>
  <stageParams>
    <boostType>GAB</boostType>
    <minHitRate>9.9500000476837158e-01</minHitRate>
    <maxFalseAlarm>5.0000000000000000e-01</maxFalseAlarm>
    <weightTrimRate>9.4999998807907104e-01</weightTrimRate>
    <maxDepth>1</maxDepth>
    <maxWeakCount>100</maxWeakCount></stageParams>
  <featureParams>
    <maxCatCount>0</maxCatCount>
    <featSize>1</featSize>
    <mode>BASIC</mode></featureParams>
  <stageNum>8</stageNum>
  <stages>
    <!-- stage 0 -->
    <_>
      <maxWeakCount>3</maxWeakCount>
      <stageThreshold>-1.6389503479003906e+00</stageThreshold>
      <weakClassifiers>
        <_>
          <internalNodes>
            0 -1 3 -4.5188748836517334e-01</internalNodes>
          <leafValues>
            1. -9.4741964340209961e-01</leafValues></_>
        <_>
          <internalNodes>
            0 -1 15 2.5235664099454880e-02</internalNodes>
          <leafValues>
            -8.7604182958602905e-01 1.2037168443202972e-01</leafValues></_>
        <_>
          <internalNodes>
            0 -1 14 -3.1972751021385193e-02</internalNodes>
          <leafValues>
            2.3125422000885010e-01 -8.1190234422683716e-01</leafValues></_></weakClassifiers></_>
    <!-- stage 1 -->
    <_>
      <maxWeakCount>4</maxWeakCount>
      <stageThreshold>-1.9681107997894287e+00</stageThreshold>
      <weakClassifiers>
        <_>
          <internalNodes>
            0 -1 6 -1.8676850199699402e-01</internalNodes>
          <leafValues>
            8.0000001192092896e-01 -9.5307916402816772e-01</leafValues></_>
        <_>
          <internalNodes>
            0 -1 23 7.6460125856101513e-03</internalNodes>
          <leafValues>
            -8.4152477979660034e-01 5.8353531360626221e-01</leafValues></_>
        <_>
          <internalNodes>
            0 -1 9 5.3006131201982498e-04</internalNodes>
          <leafValues>
            -7.4195629358291626e-01 5.4652816057205200e-01</leafValues></_>
        <_>
          <internalNodes>
            0 -1 26 -7.5950461905449629e-04</internalNodes>
          <leafValues>
            5.6844943761825562e-01 -5.7638055086135864e-01</leafValues></_></weakClassifiers></_>
    <!-- stage 2 -->
    <_>
      <maxWeakCount>3</maxWeakCount>
      <stageThreshold>-1.6797958612442017e+00</stageThreshold>
      <weakClassifiers>
        <_>
          <internalNodes>
            0 -1 25 1.6431036591529846e-01</internalNodes>
          <leafValues>
            -9.5112413167953491e-01 6.0000002384185791e-01</leafValues></_>
        <_>
          <internalNodes>
            0 -1 20 -4.8667915165424347e-02</internalNodes>
          <leafValues>
            -6.4449980854988098e-02 -9.0594929456710815e-01</leafValues></_>
        <_>
          <internalNodes>
            0 -1 7 -1.1853268370032310e-02</internalNodes>
          <leafValues>
            4.2855128645896912e-01 -6.6422176361083984e-01</leafValues></_></weakClassifiers></_>
    <!-- stage 3 -->
    <_>
      <maxWeakCount>3</maxWeakCount>
      <stageThreshold>-1.3802486658096313e+00</stageThreshold>
      <weakClassifiers>
        <_>
          <internalNodes>
            0 -1 21 -2.5402964092791080e-03</internalNodes>
          <leafValues>
            5.5555558204650879e-01 -9.4921875000000000e-01</leafValues></_>
        <_>
          <internalNodes>
            0 -1 27 9.3446306884288788e-02</internalNodes>
          <leafValues>
            -8.0534428358078003e-01 2.9092571139335632e-01</leafValues></_>
        <_>
          <internalNodes>
            0 -1 10 5.6336037814617157e-02</internalNodes>
          <leafValues>
            -7.2195565700531006e-01 4.8973238468170166e-01</leafValues></_></weakClassifiers></_>
    <!-- stage 4 -->
    <_>
      <maxWeakCount>3</maxWeakCount>
      <stageThreshold>-1.6235222816467285e+00</stageThreshold>
      <weakClassifiers>
        <_>
          <internalNodes>
            0 -1 16 -2.0356816053390503e-01</internalNodes>
          <leafValues>
            1. -9.5312500000000000e-01</leafValues></_>
        <_>
          <internalNodes>
            0 -1 2 4.6478867530822754e-02</internalNodes>
          <leafValues>
            -8.9047360420227051e-01 2.0512746274471283e-01</leafValues></_>
        <_>
          <internalNodes>
            0 -1 12 2.5038566440343857e-02</internalNodes>
          <leafValues>
            2.2361974418163300e-01 -8.7552475929260254e-01</leafValues></_></weakClassifiers></_>
    <!-- stage 5 -->
    <_>
      <maxWeakCount>4</maxWeakCount>
      <stageThreshold>-2.0119433403015137e+00</stageThreshold>
      <weakClassifiers>
        <_>
          <internalNodes>
            0 -1 1 -2.6111570000648499e-01</internalNodes>
          <leafValues>
            1. -9.4741964340209961e-01</leafValues></_>
        <_>
          <internalNodes>
            0 -1 17 -3.9926208555698395e-03</internalNodes>
          <leafValues>
            4.5977535843849182e-01 -8.2448607683181763e-01</leafValues></_>
        <_>
          <internalNodes>
            0 -1 28 7.1202893741428852e-04</internalNodes>
          <leafValues>
            -5.9355044364929199e-01 6.3116878271102905e-01</leafValues></_>
        <_>
          <internalNodes>
            0 -1 13 2.8306806925684214e-03</internalNodes>
          <leafValues>
            3.5351294279098511e-01 -8.2116520404815674e-01</leafValues></_></weakClassifiers></_>
    <!-- stage 6 -->
    <_>
      <maxWeakCount>5</maxWeakCount>
      <stageThreshold>-1.8153356313705444e+00</stageThreshold>
      <weakClassifiers>
        <_>
          <internalNodes>
            0 -1 5 -1.0468234121799469e-01</internalNodes>
          <leafValues>
            7.5000000000000000e-01 -9.4926828145980835e-01</leafValues></_>
        <_>
          <internalNodes>
            0 -1 24 -2.7881629765033722e-02</internalNodes>
          <leafValues>
            4.8982486128807068e-02 -8.8298153877258301e-01</leafValues></_>
        <_>
          <internalNodes>
            0 -1 19 5.5804243311285973e-04</internalNodes>
          <leafValues>
            -5.8023983240127563e-01 5.6795257329940796e-01</leafValues></_>
        <_>
          <internalNodes>
            0 -1 11 7.5627872720360756e-03</internalNodes>
          <leafValues>
            3.2516872882843018e-01 -8.1751930713653564e-01</leafValues></_>
        <_>
          <internalNodes>
            0 -1 8 -1.3791886158287525e-04</internalNodes>
          <leafValues>
            3.7851241230964661e-01 -6.5997868776321411e-01</leafValues></_></weakClassifiers></_>
    <!-- stage 7 -->
    <_>
      <maxWeakCount>4</maxWeakCount>
      <stageThreshold>-1.7548412084579468e+00</stageThreshold>
      <weakClassifiers>
        <_>
          <internalNodes>
            0 -1 4 -3.0524686444550753e-03</internalNodes>
          <leafValues>
            1. -9.5312500000000000e-01</leafValues></_>
        <_>
          <internalNodes>
            0 -1 0 -1.7462548613548279e-01</internalNodes>
          <leafValues>
            8.3624035120010376e-01 -8.2688790559768677e-01</leafValues></_>
        <_>
          <internalNodes>
            0 -1 18 2.2387574426829815e-03</internalNodes>
          <leafValues>
            -6.4783418178558350e-01 6.4187246561050415e-01</leafValues></_>
        <_>
          <internalNodes>
            0 -1 22 2.6904884725809097e-04</internalNodes>
          <leafValues>
            -5.7031834125518799e-01 6.7300587892532349e-01</leafValues></_></weakClassifiers></_></stages>
  <features>
    <_>
      <rects>
        <_>
          0 0 14 28 -1.</_>
        <_>
          7 0 7 28 2.</_></rects>
      <tilted>0</tilted></_>
    <_>
      <rects>
        <_>
          0 0 16 26 -1.</_>
        <_>
          8 0 8 26 2.</_></rects>
      <tilted>0</tilted></_>
    <_>
      <rects>
        <_>
          0 8 8 14 -1.</_>
        <_>
          4 8 4 14 2.</_></rects>
      <tilted>0</tilted></_>
    <_>
      <rects>
        <_>
          0 9 22 21 -1.</_>
        <_>
          11 9 11 21 2.</_></rects>
      <tilted>0</tilted></_>
    <_>
      <rects>
        <_>
          0 13 4 2 -1.</_>
        <_>
          0 13 2 1 2.</_>
        <_>
          2 14 2 1 2.</_></rects>
      <tilted>0</tilted></_>
    <_>
      <rects>
        <_>
          0 22 18 5 -1.</_>
        <_>
          9 22 9 5 2.</_></rects>
      <tilted>0</tilted></_>
    <_>
      <rects>
        <_>
          0 22 22 8 -1.</_>
        <_>
          11 22 11 8 2.</_></rects>
      <tilted>0</tilted></_>
    <_>
      <rects>
        <_>
          0 29 22 1 -1.</_>
        <_>
          11 29 11 1 2.</_></rects>
      <tilted>0</tilted></_>
    <_>
      <rects>
        <_>
          1 10 1 3 -1.</_>
        <_>
          1 11 1 1 3.</_></rects>
      <tilted>0</tilted></_>
    <_>
      <rects>
        <_>
          3 8 1 3 -1.</_>
        <_>
          3 9 1 1 3.</_></rects>
      <tilted>0</tilted></_>
    <_>
      <rects>
        <_>
          5 0 19 10 -1.</_>
        <_>
          5 5 19 5 2.</_></rects>
      <tilted>0</tilted></_>
    <_>
      <rects>
        <_>
          6 7 24 16 -1.</_>
        <_>
          6 15 24 8 2.</_></rects>
      <tilted>0</tilted></_>
    <_>
      <rects>
        <_>
          7 2 22 12 -1.</_>
        <_>
          7 6 22 4 3.</_></rects>
      <tilted>0</tilted></_>
    <_>
      <rects>
        <_>
          8 6 12 15 -1.</_>
        <_>
          8 11 12 5 3.</_></rects>
      <tilted>0</tilted></_>
    <_>
      <rects>
        <_>
          9 5 15 19 -1.</_>
        <_>
          14 5 5 19 3.</_></rects>
      <tilted>0</tilted></_>
    <_>
      <rects>
        <_>
          10 0 14 6 -1.</_>
        <_>
          10 3 14 3 2.</_></rects>
      <tilted>0</tilted></_>
    <_>
      <rects>
        <_>
          10 0 20 16 -1.</_>
        <_>
          10 8 20 8 2.</_></rects>
      <tilted>0</tilted></_>
    <_>
      <rects>
        <_>
          10 25 3 4 -1.</_>
        <_>
          11 25 1 4 3.</_></rects>
      <tilted>0</tilted></_>
    <_>
      <rects>
        <_>
          10 25 6 1 -1.</_>
        <_>
          13 25 3 1 2.</_></rects>
      <tilted>0</tilted></_>
    <_>
      <rects>
        <_>
          12 10 2 2 -1.</_>
        <_>
          12 10 1 1 2.</_>
        <_>
          13 11 1 1 2.</_></rects>
      <tilted>0</tilted></_>
    <_>
      <rects>
        <_>
          12 18 16 12 -1.</_>
        <_>
          12 24 16 6 2.</_></rects>
      <tilted>0</tilted></_>
    <_>
      <rects>
        <_>
          13 1 3 1 -1.</_>
        <_>
          14 1 1 1 3.</_></rects>
      <tilted>0</tilted></_>
    <_>
      <rects>
        <_>
          15 0 2 2 -1.</_>
        <_>
          15 0 1 1 2.</_>
        <_>
          16 1 1 1 2.</_></rects>
      <tilted>0</tilted></_>
    <_>
      <rects>
        <_>
          15 15 15 3 -1.</_>
        <_>
          15 16 15 1 3.</_></rects>
      <tilted>0</tilted></_>
    <_>
      <rects>
        <_>
          20 1 10 18 -1.</_>
        <_>
          25 1 5 18 2.</_></rects>
      <tilted>0</tilted></_>
    <_>
      <rects>
        <_>
          20 3 10 21 -1.</_>
        <_>
          25 3 5 21 2.</_></rects>
      <tilted>0</tilted></_>
    <_>
      <rects>
        <_>
          21 10 2 3 -1.</_>
        <_>
          21 11 2 1 3.</_></rects>
      <tilted>0</tilted></_>
    <_>
      <rects>
        <_>
          22 7 8 21 -1.</_>
        <_>
          26 7 4 21 2.</_></rects>
      <tilted>0</tilted></_>
    <_>
      <rects>
        <_>
          27 23 2 2 -1.</_>
        <_>
          27 23 1 1 2.</_>
        <_>
          28 24 1 1 2.</_></rects>
      <tilted>0</tilted></_></features></cascade>
</opencv_storage>
